digraph Tree {
node [shape=box, style="rounded", color="black", fontname=helvetica] ;
edge [fontname=helvetica] ;
0 [label="feature2 <= -0.8\ngini = 0.5\nsamples = 421\nvalue = [350, 334]"] ;
1 [label="feature2 <= 1.5\ngini = 0.4\nsamples = 81\nvalue = [106, 37]"] ;
0 -> 1 [labeldistance=2.5, labelangle=45, headlabel="True"] ;
2 [label="gini = 0.4\nsamples = 74\nvalue = [94, 37]"] ;
1 -> 2 ;
3 [label="gini = 0.0\nsamples = 7\nvalue = [12, 0]"] ;
1 -> 3 ;
4 [label="feature2 <= 1.0\ngini = 0.5\nsamples = 340\nvalue = [244, 297]"] ;
0 -> 4 [labeldistance=2.5, labelangle=-45, headlabel="False"] ;
5 [label="gini = 0.5\nsamples = 230\nvalue = [183, 186]"] ;
4 -> 5 ;
6 [label="gini = 0.5\nsamples = 110\nvalue = [61, 111]"] ;
4 -> 6 ;
}